user,p0,p1,p2,p3,p4,p5,p6,p7,p8,p9,p10,p11,p12,p13,p14,p15,p16,p17,p18,p19,p20,p21,p22,p23,p24,p25,p26,p27,p28,p29,p30,p31,p32,p33,p34,p35,p36,p37,p38,p39,p40,p41,p42,p43,p44,p45,p46,p47,p48,p49,p50,p51,p52,p53,p54,p55,p56,p57,p58,p59,p60,p61,p62,p63,p64,p65,p66,p67,p68,p69,p70,p71,p72,p73,p74,p75,p76,p77,p78,p79,p80,p81,p82,p83,p84,p85,p86,p87,p88,p89,p90,p91,p92,p93,p94,p95,p96,p97,p98,p99,p100,p101,p102,p103,p104,p105,p106,p107,p108,p109,p110,p111,p112,p113,p114,p115,p116,p117,p118,p119,p120,p121,p122,p123,p124,p125,p126,p127
anton.jpg,0.7303774356842041,-1.424467921257019,1.621302366256714,-0.510301947593689,0.6318416595458984,0.6180914640426636,2.295747756958008,-0.943790078163147,-0.3525657653808594,0.8840165138244629,0.6728132367134094,-1.2491765022277832,1.5681129693984983,0.6224246025085449,-1.6411978006362915,0.0596353188157081,-1.0113672018051147,-1.7380911111831665,-1.101348042488098,-1.8786906003952024,0.5147289037704468,0.3097159266471863,-1.2133742570877075,-0.7417923212051392,2.2025704383850098,0.6005926728248596,1.5427685976028442,0.7964096069335938,-0.2244331687688827,-0.5985098481178284,1.129410982131958,0.8296562433242798,0.8034296631813049,0.1498388946056366,0.0819416940212249,-0.2883680462837219,-0.6246621012687683,-0.8590304255485535,1.9565577507019043,-1.0082484483718872,-0.0671021491289138,0.5667034983634949,-1.2938448190689087,-1.951723456382752,-1.0054450035095217,-1.8274062871932983,-0.9315531849861144,0.718180775642395,0.4577955603599548,-0.1545292437076568,-0.8759060502052307,0.1327196806669235,-0.2748281061649322,-0.4686465859413147,0.6904139518737793,0.7096067070960999,2.1474077701568604,-1.5408892631530762,0.1737745553255081,0.7618435621261597,-1.0705238580703735,-1.146251559257507,0.8866414427757263,0.6409763693809509,0.6088370084762573,-1.2151871919631958,-1.0484704971313477,0.0188125595450401,-0.5459595322608948,0.7021633386611938,-0.6523320078849792,0.6924562454223633,-1.0084909200668335,-0.3950770497322082,1.0742065906524658,-0.5556209683418274,-0.4044727981090545,0.8424408435821533,1.590355634689331,1.3053666353225708,0.0829332917928695,-0.3598284721374511,0.8130298852920532,-1.1063863039016724,1.764319658279419,1.3070619106292725,0.1488381624221801,0.2203412503004074,0.7829383611679077,1.1858454942703247,0.172072634100914,1.8881274461746216,-0.1647773683071136,-0.1493159234523773,1.9634613990783687,2.27464246749878,-2.3307156562805176,-0.5768442749977112,1.1021759510040283,-1.4593651294708252,0.6018527150154114,0.7232068181037903,-0.3988310694694519,-2.83870530128479,0.3939095139503479,1.0221033096313477,-0.7818778157234192,-0.2501983344554901,-0.1152602136135101,-2.385259866714477,0.0212338007986545,0.0714752972126007,-1.019330978393555,-0.6180919408798218,1.9344862699508667,1.68897807598114,1.2490440607070925,1.5568857192993164,0.0161619931459426,1.3016420602798462,1.0555671453475952,-0.7227340936660767,1.4448802471160889,0.6044814586639404,0.3434385061264038,0.3361746072769165,-0.034872256219387,-0.2650867998600006
goat.jpg,0.5285641551017761,0.3491835594177246,-1.4568796157836914,-0.090095080435276,-0.7225999236106873,0.387830913066864,0.6634979844093323,-0.6289067268371582,-1.4657186269760132,-0.409850001335144,-1.545689582824707,0.2530726492404938,-0.1968335509300232,-0.7055774927139282,-0.5012738704681396,-1.192349195480347,0.3011374473571777,-1.1060010194778442,-0.7342192530632019,-0.6889026165008545,-0.1072534397244453,1.2736499309539795,-0.1409057080745697,-0.4009357988834381,-1.5271172523498535,-0.326968103647232,-2.331056594848633,-0.5520686507225037,1.863708257675171,1.5022152662277222,1.6305763721466064,-0.1848897933959961,-0.0048524420708417,-0.4331855475902557,-0.3596645891666412,-0.5616620779037476,0.327326238155365,0.2910981476306915,-1.3721940517425537,-1.241662859916687,-0.0332105830311775,0.9430774450302124,-1.1820212602615356,-0.3556254506111145,1.07230544090271,-0.0193547084927558,3.504900932312012,0.0222947187721729,-2.222629308700561,0.0930336266756057,-1.9924370050430296,-1.0481233596801758,-1.7538559436798096,0.1584320217370987,-2.07045841217041,0.5117233991622925,-1.906882405281067,1.1017640829086304,-0.173347607254982,-0.6520273685455322,-0.8040611743927002,-1.501006007194519,0.2230476438999176,-0.8102272748947144,-1.572080373764038,0.9084164500236512,-0.0363065674901008,3.050119638442993,1.476536750793457,-1.288559913635254,1.0138784646987915,0.5376158952713013,-0.8063293695449829,-0.200863629579544,-0.2765795290470123,1.3818825483322144,0.0642125159502029,-0.5279828310012817,0.197624385356903,-0.8746553063392639,-0.3855868577957153,-1.2363958358764648,-2.2628183364868164,0.0112902764230966,-0.1840889155864715,-0.459442675113678,0.713744044303894,-1.035001516342163,0.6242213249206543,-0.2396831512451172,0.4832439124584198,-1.550389051437378,1.03788161277771,-0.7657383680343628,-0.5508521795272827,1.0732122659683228,-0.015803974121809,1.2097458839416504,1.0500893592834473,-0.042381428182125,-0.3342847228050232,1.7889777421951294,1.1903568506240845,-0.9267758131027222,-0.8066684603691101,0.2193987369537353,-0.112986996769905,-1.426146388053894,-0.0123300217092037,0.5379336476325989,-1.8388514518737795,1.5035996437072754,-0.0978694111108779,-0.6778882741928101,-0.3835324048995971,0.5190087556838989,-2.194611072540283,-1.4339157342910769,-1.97335684299469,0.885439395904541,-0.9322033524513244,2.1037240028381348,0.342720627784729,1.1406773328781128,0.5100287199020386,0.241854578256607,-0.8252236843109131,0.2918935120105743
obama.jpg,-0.4127961993217468,1.0556604862213137,-1.6385914087295532,-0.3357114195823669,-0.1320217698812484,-0.3950182795524597,0.1531908512115478,1.0277611017227173,-0.7540777921676636,0.5849027037620544,-0.6749774217605591,2.113272190093994,0.6891701221466064,-0.9822381734848022,0.1537777781486511,0.6127844452857971,0.0980977341532707,-0.7123600244522095,0.4522546529769897,-1.2545241117477417,0.0616209357976913,-0.6266887784004211,-1.0289729833602903,0.7471102476119995,-1.553715467453003,-1.4871200323104858,-0.2818955481052398,0.8986322283744812,-1.4577007293701172,-1.0533509254455566,-1.485887050628662,0.746572732925415,0.4504766166210174,-0.5917871594429016,0.3080886602401733,-2.009640455245972,-0.4659228324890136,-1.9988088607788088,0.2768943905830383,-1.3151904344558716,-0.4362392723560333,0.524297833442688,-0.3728554546833038,0.3821872472763061,1.3253908157348633,-1.1408281326293943,1.3327924013137815,0.2772072553634643,-0.2168282270431518,0.6885666847229004,-1.027435064315796,1.8796082735061648,-1.2169294357299805,-0.7454978823661804,1.1459013223648071,0.8038273453712463,-0.6048980355262756,-0.1383590847253799,-0.9011266827583312,0.708100438117981,0.3868526518344879,-0.2980888485908508,1.6391448974609375,-0.9500983357429504,-0.1552980840206146,0.2524026036262512,-0.76485675573349,1.247912883758545,-0.4891250133514404,-1.6810224056243896,0.1141794547438621,-0.2943337559700012,-0.4510785937309265,-0.215694785118103,1.8162354230880733,-1.389726638793945,-1.0285145044326782,0.4072628915309906,1.108337163925171,-1.6608418226242063,0.8414267897605896,-0.3678428530693054,-1.8232901096344,-1.3120896816253662,-0.6814950108528137,0.7108652591705322,-1.3812423944473269,-0.7596608400344849,0.4357476234436035,-0.7500765919685364,-0.6085788011550903,0.2645445466041565,1.309459209442139,-0.0071873292326927,1.7814961671829224,0.4269272685050964,-0.3843671381473541,-0.1188153102993965,-1.983193635940552,1.487213373184204,0.2258745282888412,0.898064136505127,-0.1280141174793243,-0.9750217795372008,-0.3438746333122253,-2.280459403991699,-0.4403959810733795,-0.8464484214782715,-1.9577819108963013,1.6455354690551758,-1.4427030086517334,1.832458019256592,0.969051718711853,-0.352305144071579,-2.4236948490142822,-0.2354552000761032,-1.202017903327942,0.438901275396347,-0.7337735295295715,1.18522846698761,-2.7981677055358887,0.2021084129810333,1.9825621843338013,0.9751759767532348,0.9899975657463074,0.8711801767349243,0.6011549234390259,0.0647568106651306
patron.jpg,-1.43701171875,-0.8236110210418701,-1.6446075439453125,1.0633810758590698,-0.5848619937896729,1.2753247022628784,-0.5203951597213745,-0.3365906476974487,1.8970993757247925,0.0471724681556224,0.1121513918042182,-1.6068379878997805,-0.1264824122190475,-0.8716235160827637,1.3420239686965942,-0.5147008299827576,-1.1132184267044067,0.9055249094963074,-2.811004400253296,0.25808846950531,1.0809751749038696,-0.9950740337371826,-0.7096219062805176,-1.5445657968521118,0.2719384729862213,1.8700158596038816,0.3707078695297241,-0.1031608134508133,0.365459680557251,-0.1000047847628593,-0.9955617189407348,0.4001789391040802,-0.7061436772346497,-0.1034832149744033,2.8328235149383545,0.8942477703094482,-1.8993273973464968,0.1721096336841583,0.8567515015602112,0.2872515618801117,1.691510558128357,0.779914140701294,-0.4683475196361542,-1.79279887676239,-0.3405970931053161,-3.2961432933807373,1.435214877128601,0.640628457069397,0.1812325268983841,-1.7383499145507812,-0.5613937973976135,0.2231392413377761,-0.6047462224960327,1.1937264204025269,0.9336146712303162,-0.8410855531692505,2.1060333251953125,0.3503849804401397,-0.1591918319463729,-1.1409094333648682,0.5316845774650574,-1.0862643718719482,0.2162668406963348,0.7207114100456238,1.4078234434127808,0.8092853426933289,-0.1083160564303398,2.059792995452881,0.3095444738864898,-0.5692535638809204,-0.3075976073741913,-0.4082180559635162,-0.1361101567745208,-0.7834413647651672,0.732731282711029,-0.3206721246242523,0.4068726003170013,0.0085894167423248,-0.6586349010467529,0.0226231217384338,-0.258351981639862,-2.207406520843506,0.4800024926662445,0.8005319237709045,-0.3429591357707977,0.0882253795862197,0.1952282339334488,0.1356942504644394,-0.6233634948730469,-0.2614271640777588,0.6019109487533569,-0.9212207794189452,0.0487806238234043,-0.5182517766952515,-2.1098413467407227,1.898831129074097,-1.214687705039978,-0.0009689070284366,-0.5362107753753662,0.2035896182060241,-0.9510400891304016,1.2434343099594116,-2.0542798042297363,1.037814736366272,1.9662144184112549,0.5757385492324829,-0.6825695037841797,-1.8408234119415283,1.3315690755844116,2.190863609313965,1.1260110139846802,0.009551178663969,-0.559016227722168,-0.1756171584129333,-0.2523319721221924,0.0356078445911407,-2.379727840423584,-0.3181937932968139,1.8511903285980225,-0.1974543631076812,0.1786341965198516,0.4462431371212005,0.8225488662719727,-0.5472691655158997,-0.0442540720105171,0.221323937177658,1.3688011169433594,1.0380421876907349
roshen.jpg,-0.4418028891086578,-0.3386008441448211,-0.6121261715888977,2.0480589866638184,-0.4258491992950439,1.1591724157333374,0.8262983560562134,-0.6903948187828064,-0.5851064920425415,1.7644280195236206,-4.261652946472168,-0.6693622469902039,-0.3435530662536621,1.0421658754348757,1.137858748435974,-0.2622908353805542,0.6936917304992676,-0.8596216440200806,0.2597071826457977,0.5548446178436279,0.8880664110183716,0.9609193801879884,0.230584979057312,0.7230914235115051,1.6309630870819092,-0.4827845692634582,0.4406295716762543,-0.4654709696769714,0.5291740298271179,-0.7889206409454346,1.471682071685791,-1.515844702720642,0.1010506749153137,-0.2541936635971069,-0.1958796381950378,-0.8947370052337646,-1.0479702949523926,-0.5364671349525452,-0.9305686354637146,-0.7912538051605225,-1.4365675449371338,1.3170413970947266,1.271148920059204,0.4872707724571228,0.8102704882621765,0.378503680229187,-0.2708196341991424,-0.3088807463645935,-0.3479086756706238,0.5481007099151611,-0.5674403309822083,-0.072090744972229,0.1173645928502082,-0.995194673538208,-0.1089682132005691,-1.32557213306427,0.9211336970329284,0.2507466077804565,-0.5986021757125854,-0.0784164071083068,-0.6389700770378113,1.0220855474472046,-0.9516412615776062,-0.2561648786067962,-1.379625678062439,-0.8732833862304688,0.6336730122566223,0.0792747139930725,-0.6238941550254822,-0.0251652654260396,0.7277672290802002,-0.54338538646698,0.9278733134269714,-2.2910873889923096,0.8815280795097351,0.5646735429763794,0.2920881807804107,-0.3658512234687805,0.6076107025146484,1.1658598184585571,0.2926613390445709,1.9739561080932613,1.167502760887146,-1.0072429180145264,-1.002598524093628,1.6782023906707764,0.4379332363605499,0.5386884212493896,0.378581166267395,0.0757138133049011,1.054318070411682,0.7326924800872803,-0.8111423850059509,1.6461045742034912,0.3287419378757477,-0.659959614276886,-1.7861095666885376,0.43248450756073,0.9107291102409364,2.233117818832397,1.4040919542312622,0.8132770657539368,-0.6307632327079773,-0.2621071636676788,0.3446736633777618,-3.939620971679688,-0.8312941193580627,0.9316287040710448,0.1867684721946716,-0.8757731318473816,-2.5610504150390625,-0.4058136940002441,0.3065595030784607,1.3039159774780271,-1.658195972442627,-1.6659845113754272,0.2912917137145996,1.6421812772750854,0.1580763310194015,0.2100682556629181,2.593951463699341,-0.6270847320556641,-1.2377675771713257,-0.0912676304578781,1.0617008209228516,-1.1070023775100708,1.564059495925903,0.0366092659533023
the_kingo.jpg,-1.0865460634231567,-0.6401923894882202,-2.6455228328704834,-0.2643985748291015,2.0788614749908447,-0.1645141541957855,-0.570584237575531,0.966081440448761,1.3251490592956543,0.1206219494342804,0.0870568677783012,-1.8905398845672607,-3.180217027664185,1.592314839363098,1.3269132375717163,0.628836989402771,-0.8702073097229004,-0.5608790516853333,-0.9089396595954896,-0.448670744895935,-1.7201638221740725,0.2238343507051468,1.450583815574646,0.2822748720645904,0.5848532319068909,-1.2059437036514282,0.8811087608337402,-1.5780338048934937,-0.7047760486602783,0.1822785586118698,-0.0923596322536468,-0.4099442064762115,-0.6420954465866089,2.072293519973755,0.0283970925956964,0.5423994660377502,0.1467771232128143,0.3400734066963196,0.6537129878997803,-1.1905522346496582,-1.4702321290969849,-2.185926675796509,-0.8184863328933716,-0.363810658454895,0.961208701133728,-2.501573085784912,-2.5279786586761475,1.0443772077560425,0.6262296438217163,1.5042736530303955,-0.2439707368612289,0.6624223589897156,0.4986529350280761,1.132049560546875,-1.1474727392196655,-2.371987819671631,-0.9794516563415528,-0.2051951885223388,-2.396455764770508,-0.4332564175128937,-1.4717525243759155,1.3875197172164917,-1.3277281522750854,0.9141328930854796,-0.0394349247217178,0.1594361960887909,-1.193074345588684,0.0536560975015163,-0.6018947958946228,-1.0757960081100464,0.4991126656532287,-2.425544023513794,0.311825543642044,-1.0735739469528198,0.4259288907051086,-0.6101581454277039,0.200823575258255,-0.7729213833808899,0.3150081038475036,-0.3386423587799072,-0.6379596590995789,2.250801086425781,-0.3469249308109283,-0.0184668786823749,-1.178999662399292,0.7617391347885132,-0.7304108738899231,1.012632966041565,0.3365495204925537,-0.8186661005020142,0.8130912780761719,0.147038072347641,-0.6707726716995239,0.2439593076705932,0.6310976147651672,0.7207561135292053,-2.004333257675171,0.4546874463558197,-1.88903284072876,1.815474271774292,-0.0095232725143432,-0.4088543355464935,-1.4646661281585691,0.278267353773117,0.7260241508483887,-0.9453848004341124,1.4601140022277832,-1.8482924699783323,-0.4480575323104858,-1.0172955989837646,-0.4976661801338196,-0.7242264151573181,0.6561664342880249,-1.0760300159454346,-0.0478962287306785,-1.2041136026382446,0.1565168648958206,0.2341583967208862,-0.9368399381637572,1.418523907661438,-0.9467788934707642,-0.1409554481506347,0.7710539102554321,-0.5877622365951538,-0.3290144801139831,0.3146981000900268,1.5168721675872805,1.4977800846099854
USER_0,-0.1659085154533386,-0.4260750114917755,-0.2569546103477478,-0.4151649177074432,0.3275596499443054,-0.0445464812219142,0.237304225564003,-0.21835757791996,-0.0005777142941951,0.058418970555067,0.4487969875335693,-0.2923386991024017,0.1016266644001007,-0.5722695589065552,-0.0089843794703483,0.3772085905075073,0.4252516329288482,-0.3968515992164612,0.2355309128761291,-0.5759085416793823,-0.0918512791395187,0.0119141861796379,-0.331444501876831,-0.1926339268684387,0.1477306932210922,-0.1590291261672973,0.6240111589431763,0.280133843421936,-0.3221889138221741,-0.0680690631270408,-0.2952380180358886,0.2690904438495636,0.1556229144334793,-0.2114728391170501,0.5125251412391663,-0.1780473589897155,0.5295971632003784,0.094573825597763,0.4177522659301758,-0.1190957129001617,0.3917692601680755,0.2090201079845428,-0.1682641506195068,-0.1348762959241867,-0.3092994093894958,-0.6027607917785645,0.087495133280754,-0.0643269717693328,0.4464618563652038,0.3120588362216949,-0.5599798560142517,0.1742940992116928,0.1781600415706634,-0.2356441766023636,-0.0897956043481826,0.3752709627151489,0.4307766258716583,0.2728232741355896,-0.0835983455181121,-0.8329359292984009,-0.3704100847244262,-0.1578863263130188,-0.1490798592567443,0.9100650548934937,0.0891042351722717,0.6181007623672485,0.2408432364463806,0.0659389048814773,0.2348820567131042,-0.4556275904178619,-0.0715713053941726,-0.475894957780838,0.0902665704488754,-0.4947898983955383,-0.0903714448213577,-0.1703995019197464,-0.1162396669387817,0.3550654947757721,-0.1954966187477111,-0.4376373887062073,-0.5872516632080078,-0.2016092389822006,-0.0175604000687599,0.0746284276247024,0.3893486857414245,0.0037169754505157,0.5076338052749634,-0.115343302488327,-0.6905045509338379,0.8050845861434937,0.2392670214176178,0.143368050456047,0.0034759677946567,-0.1382604837417602,0.3850598633289337,0.2883444130420685,-0.0077973520383238,-0.5246719121932983,-0.7305382490158081,0.2690532207489013,-0.3387531638145447,0.630088210105896,0.3126303553581238,-0.4522975385189056,0.1395272314548492,0.3407861590385437,-0.0220279227942228,-0.1321926712989807,-0.1701854020357132,-0.3941688239574432,0.1117259189486503,0.1719542443752288,0.4495462477207184,0.475039392709732,-0.1696076840162277,0.2051100432872772,-0.0220193527638912,0.4750735759735107,0.3576796352863312,0.230404183268547,-0.2625457048416137,-0.1217871606349945,0.466870903968811,0.2685484886169433,0.3863161206245422,-0.3763591647148132,0.4203809201717376,0.1248667240142822
USER_1,-0.4630870521068573,0.111108586192131,-1.161565184593201,0.1548491716384887,0.8718608617782593,0.8012853264808655,0.8800861239433289,-0.3201533555984497,-0.2943226397037506,0.7149121165275574,0.8111199736595154,-1.212005376815796,0.1166795790195465,-0.6425501108169556,0.3023671209812164,0.4954180717468261,-0.5897157192230225,-0.9612478017807008,-1.1129287481307983,0.0494141057133674,-0.008388839662075,1.1761447191238403,-0.4502707123756408,-0.2978357076644897,0.0144583107903599,-0.0246024057269096,0.1993492245674133,0.0494327507913112,-0.2391261011362075,0.4093629717826843,0.7319902181625366,0.1973839849233627,-0.0405001975595951,0.3651753067970276,0.1923135668039322,0.2144440561532974,0.3173772990703583,-0.1227340772747993,0.1411430984735489,-1.0621737241744995,0.2121301293373108,0.8814131617546082,-1.0384845733642578,-0.0383723638951778,-0.6205235719680786,-0.8721480369567871,0.5330122709274292,-0.0086997225880622,0.0806791484355926,0.4793559312820434,-1.433219075202942,0.1099057644605636,-0.2511786520481109,0.9423696994781494,-0.904981017112732,-0.0991858914494514,-0.0450787283480167,0.0829687267541885,-1.196037769317627,-1.017045497894287,-0.7055445313453674,0.1300687491893768,-0.0989277362823486,1.2221301794052124,0.3594498038291931,-0.0547219067811965,-0.2885065376758575,0.8121044039726257,0.7586444020271301,-0.2509205937385559,0.2099935263395309,0.2839422225952148,-0.8370901346206665,-0.7405411005020142,-0.0543628893792629,0.2389709949493408,-0.2305440306663513,0.2764945328235626,-0.0537996813654899,1.1667739152908323,-0.705986738204956,-0.8145531415939331,-0.0093700215220451,0.633066713809967,0.3720726668834686,0.3955281674861908,0.3933089673519134,0.2365114241838455,-0.2248010784387588,-0.763302206993103,0.8284708857536316,-0.5955268144607544,-0.0887379795312881,0.5326933264732361,1.0875146389007568,0.661741316318512,-0.8618515729904175,-0.6405463814735413,-0.1594676077365875,-0.3893937170505523,-0.1093086674809455,1.3616135120391846,-1.2182612419128418,-0.4001543819904327,0.1724984049797058,0.5191423892974854,-0.1435733884572982,-1.6441307067871094,0.2284704744815826,-0.2673197984695434,-0.4131923317909241,-0.0558157414197921,-0.0409930497407913,0.8786743879318237,-0.2673066854476928,0.989978551864624,-1.0264300107955933,-0.7583273649215698,-0.7269065976142883,1.1597466468811035,-0.1454684734344482,0.7063623666763306,0.8712285757064819,-0.4379467368125915,0.0511186011135578,-0.8157294392585754,0.9850504994392396,0.8352708220481873
USER_2,-0.4152352809906006,-0.3782442510128021,-0.43385910987854,-0.3106622695922851,0.0788535252213478,-0.404954195022583,-0.0828647464513778,0.1017549484968185,0.1986327767372131,-0.2236406952142715,0.1103736087679863,0.2473055124282837,0.3608656525611877,-0.3816957473754883,-0.2770112156867981,-0.5744232535362244,0.3587317764759063,-0.6156691908836365,0.0686462670564651,-0.4844223856925964,-0.2632828652858734,-0.0076280119828879,0.1963125169277191,0.1973445117473602,0.2267470210790634,0.0085791386663913,1.0576905012130735,-0.4179210960865021,-0.4668198227882385,-0.9301372170448304,-0.6250382661819458,-0.34444260597229,-0.1914329379796981,0.910303235054016,0.3738940954208374,0.8307464122772217,0.4207760095596313,-0.3449234962463379,-0.0066051483154296,-0.5461106300354004,-0.0838364884257316,0.8335685133934021,-0.0940678268671035,0.2187930047512054,-0.1203975677490234,-0.7775033712387085,-0.0971666276454925,-0.3732284009456634,0.4434415102005005,-0.3468787670135498,-1.1666690111160278,-0.3253960907459259,-0.0528215244412422,-0.2409609407186508,-0.6990104913711548,0.7688020467758179,0.7181771397590637,-0.0683963224291801,-0.5552735328674316,-0.8616319298744202,-0.8470125198364258,0.6042779684066772,-0.5364934206008911,0.6612682938575745,0.0277518983930349,0.733803391456604,-0.1497421860694885,0.0387078188359737,-0.2163998186588287,0.0374753884971141,0.8657469749450684,0.3807838261127472,-0.5086043477058411,-0.4672763347625732,0.7665215730667114,-0.6890308856964111,-0.33653724193573,0.1076875329017639,-0.2385832667350769,-0.7549066543579102,-0.0519037991762161,-0.3360606729984283,-0.2919977307319641,-0.2453415989875793,0.696338951587677,0.4793643653392792,0.3415697813034057,0.1961062401533126,-0.6677820682525635,0.523015022277832,0.055602878332138,0.0314911231398582,-0.2512841522693634,-0.2691545784473419,0.2692748308181762,0.7878305315971375,-0.3054868578910827,-0.3609607517719269,0.3287791311740875,0.705301821231842,-0.009370744228363,0.2641439139842987,0.5525537729263306,-0.5333036184310913,0.6260399222373962,0.5663700699806213,0.0031809266656637,-0.7818503379821777,-0.6428939700126648,-1.172526717185974,0.5590334534645081,-0.0541319400072097,0.1887122243642807,0.782680869102478,0.1568456143140792,0.8705132007598877,-0.581040620803833,0.7328141331672668,0.9816838502883912,0.8770319223403931,0.0240571647882461,-0.8078340291976929,0.0328350961208343,0.1065321713685989,0.3361136317253113,-0.4006420969963074,0.9975230097770692,0.3010631203651428
USER_3,0.3629138171672821,0.3589601814746856,-1.5176174640655518,0.3825728297233581,0.7245227098464966,-0.2936326265335083,0.066458448767662,0.6731041669845581,0.0288350358605384,0.0049375146627426,-0.0942306593060493,0.1873645782470703,0.154134139418602,-0.1074904128909111,-0.2349993884563446,-0.2996003031730652,-0.7329065799713135,-1.2126879692077637,-0.5569498538970947,0.6419638395309448,-0.1803098320960998,0.6703826189041138,-0.8462404608726501,0.9760982990264891,0.460075169801712,-0.2308675348758697,-0.2983855605125427,0.2075133770704269,-0.1621138602495193,-1.0540072917938232,0.4012468457221985,-0.3713482022285461,-0.1430599242448806,0.2953850328922272,-0.2112329751253128,0.1009833961725235,0.1029932126402854,-1.2511613368988037,0.7014337778091431,-0.4859338104724884,-0.4505131542682647,1.528787612915039,-0.726615309715271,-0.5265852808952332,-0.4328608512878418,-1.019982099533081,0.2362967729568481,1.0908657312393188,-0.5685982704162598,0.3951337039470672,-0.7300378084182739,0.7831423878669739,-0.582813024520874,-0.079712301492691,-0.0330088697373867,0.2193767428398132,0.7743662595748901,-0.0739725083112716,-0.1353109627962112,0.3751195967197418,0.3315954208374023,-0.1222857907414436,0.0800779163837432,0.2527456283569336,0.3573981523513794,0.7525041103363037,-0.5405839681625366,1.1805546283721924,-0.5865217447280884,-0.2463326454162597,0.355243057012558,-0.1466247737407684,-0.6033226847648621,-0.0411810912191867,0.6911927461624146,-0.2547982037067413,0.5309240818023682,1.2061649560928345,0.1345680058002472,0.388616144657135,-1.060735106468201,-0.5808923244476318,0.0470747500658035,-0.0736723095178604,0.309573620557785,0.5188707113265991,-0.075592815876007,-0.4040121436119079,0.6001968383789062,-0.6067157983779907,0.7651836276054382,-0.0247709453105926,-0.3208198547363281,-0.1362712681293487,0.8847876787185669,0.2458548992872238,-0.7112826108932495,-0.8604702353477478,-0.6993537545204163,0.2438692599534988,-0.2214833199977874,1.078859567642212,-0.521945595741272,-0.8966872096061707,0.080680213868618,-0.8165278434753418,0.5603052973747253,-1.109105348587036,-0.2029849737882614,0.1410164684057235,-0.1037040203809738,-0.0077796876430511,0.7809616327285767,-0.1753768026828766,-0.0222394336014986,1.0215879678726196,-0.8456752300262451,0.8443151116371155,0.3533162176609039,0.9935870170593262,-0.531253457069397,0.4236162900924682,0.5221524834632874,-0.4622601866722107,0.8719808459281921,-0.9777867197990416,0.3927063345909118,-0.0393403433263301
USER_4,0.056469514966011,-0.1921042799949646,-0.1963834166526794,-0.5302078723907471,1.4613966941833496,0.6775006651878357,0.0703788697719574,0.5598607063293457,0.1884790062904358,0.6178629994392395,-0.7878275513648987,-0.2530162930488586,0.9668099284172058,-0.0435618199408054,0.497593879699707,-1.2341790199279783,0.585899829864502,-0.5882981419563293,0.5145869255065918,0.9016021490097046,0.4796583950519562,0.2088718861341476,0.4425535500049591,1.2690387964248655,0.2643716037273407,-0.3912542164325714,0.2961530685424804,-0.0346870049834251,-0.7985534071922302,-1.7015951871871948,0.1640661358833313,-0.0163421221077442,-0.274041086435318,0.1567743718624115,-0.5638336539268494,0.0980866998434066,-0.2652231752872467,-0.700482189655304,0.0053137019276618,-0.0424951612949371,0.0473610386252403,-0.6659424901008606,0.3368211984634399,0.2682936191558838,-0.2480824440717697,-0.7025227546691895,-0.2051160037517547,-0.4615389406681061,0.0902527272701263,-1.050255298614502,-1.3894751071929932,0.6358156800270081,-1.2632285356521606,-0.9407350420951844,-0.5113022327423096,-0.3761131763458252,0.838070273399353,-0.592915952205658,-0.3295010924339294,-0.5781065225601196,0.080682598054409,0.1373804658651352,-0.7764776349067688,0.3866733312606811,-0.5799766182899475,-0.2806411981582641,0.774432897567749,-0.572094738483429,-0.3594842851161957,-0.2024458795785904,-0.3130066394805908,-0.0142720788717269,1.089479684829712,0.3769074082374573,0.7911780476570129,-0.096844270825386,0.153245598077774,-0.5535168051719666,-0.5835458040237427,0.5453359484672546,-0.1052194163203239,1.2619059085845947,-0.3136607110500335,-0.3847474455833435,0.2146652340888977,0.8652584552764893,0.3763082027435303,-0.8508396744728088,-0.0489860773086547,1.1982654333114624,0.0888254195451736,0.1494606882333755,-1.2089619636535645,-0.2903796732425689,0.7462912797927856,-0.3837961852550506,-0.7249054312705994,0.1494510769844055,-0.3281088173389435,0.2311678379774093,0.0163360424339771,-0.5621780753135681,-0.735744059085846,-0.5451430082321167,0.1017083302140235,-0.7069838047027588,0.7471206188201904,-0.7306879758834839,1.115877628326416,-0.8827127814292908,-1.144511342048645,0.1704152822494506,0.6428594589233398,0.4089698493480682,0.2150451093912124,0.0130787715315818,-0.274599552154541,0.1488309800624847,0.8857918381690979,1.0406041145324707,0.1274586021900177,0.3409959971904754,-0.934800148010254,0.2842805385589599,0.3009821772575378,-0.5473647117614746,1.2747700214385986,0.1608884781599044
USER_5,-0.5106258392333984,-0.6364514827728271,-0.643466591835022,-0.4234099686145782,0.1438520848751068,1.2321478128433228,-0.2217420041561126,0.2981738150119781,0.7771868109703064,0.2709715962409973,0.0350089073181152,-0.1610018461942672,1.2453755140304563,-0.3573596775531769,0.2393004596233368,-0.6329501271247864,-0.0430795401334762,-1.470470309257507,0.180513709783554,0.8506155014038086,0.0511783808469772,0.4289133548736572,0.2703638076782226,1.2788923978805542,0.8323405385017395,0.5844383239746094,0.5391443967819214,-0.18800088763237,-0.5620561242103577,-0.9078079462051392,0.0730493888258934,-0.2905089259147644,-0.3569763302803039,0.570652961730957,-0.0529743060469627,0.6869444251060486,-0.4135658740997314,-0.6306450366973877,-0.0082166045904159,-0.7166241407394409,-0.1407816857099533,0.6482983231544495,-0.3285772800445556,-0.0751233845949173,-0.4460765421390533,-0.7254214882850647,0.3514550924301147,0.1971192359924316,-0.5541053414344788,0.5205130577087402,-0.9502597451210022,0.328909307718277,-0.6340716481208801,-0.4585124254226684,-0.9297112822532654,-0.3101196587085724,0.9868357181549072,-0.7303279638290405,-0.416597455739975,-0.5990071892738342,0.458187460899353,0.4135202765464782,-0.0617203488945961,0.6933565735816956,0.0149059565737843,-0.3640249967575073,-0.3110913932323456,-0.3137285411357879,-0.307493507862091,-0.2893720269203186,0.4180638790130615,-0.6208266019821167,0.2368731498718261,-0.2282712608575821,1.0282142162322998,-0.2716870009899139,0.1325822174549102,-0.0505869425833225,-0.2267020344734192,0.5759434103965759,-0.5245824456214905,-0.1999778598546981,-0.3964061439037323,0.521433413028717,1.0992395877838137,0.4355643093585968,1.281183123588562,0.1427578032016754,-0.099773459136486,0.2071511000394821,0.3056690692901611,-0.5963643193244934,-0.2569365799427032,0.1536603271961212,1.064328908920288,1.4700496196746826,-0.6017286777496338,0.34019735455513,-1.2541825771331787,-0.2768990099430084,0.8348941206932068,-0.1830654442310333,0.152045264840126,-0.4579208195209503,-0.2072471380233764,-0.2100802212953567,-0.0839418023824691,-0.4028850495815277,1.134968400001526,-1.1331326961517334,0.1764958947896957,-0.8221340179443359,0.6211581230163574,0.8760095238685608,0.3095294237136841,0.3108611702919006,-0.7292819023132324,0.2032032012939453,0.7093968391418457,0.7795783877372742,0.4922772049903869,-0.3171806335449219,-0.4714242219924927,0.2099974304437637,0.7797763347625732,-1.219807744026184,1.198996663093567,0.2850163280963897
USER_6,-0.3468014597892761,0.1044668406248092,-1.112083077430725,-0.0501576289534568,0.5913199186325073,-0.350604236125946,0.1865274310111999,0.4636535048484802,0.4877616465091705,-0.6420224905014038,0.5007858276367188,-0.1430751681327819,0.6702070832252502,0.4110314846038818,0.9530429840087892,-0.2511115074157715,-0.7152997255325317,-0.9557828307151794,-0.3680610656738281,1.523226261138916,-0.5084493160247803,-0.0154076963663101,1.5225510597229004,0.727338969707489,0.4443999230861664,-0.9408109784126282,-0.4247883260250091,-0.1637973487377166,-0.6554638147354126,-1.8169565200805664,-0.4034106135368347,-0.6858179569244385,-1.5126008987426758,3.210180759429932,-0.136234238743782,-0.1010837703943252,-0.170804888010025,-0.3757469952106476,0.8159515857696533,-1.746181607246399,-0.4135662019252777,0.7816587090492249,-0.6599980592727661,-0.7273036241531372,-0.4995686113834381,-2.265333652496338,-1.609314203262329,0.6346601247787476,0.6214877963066101,0.9980162382125854,0.0870680287480354,0.7343266606330872,-0.4318651258945465,-0.4476147294044494,-0.5568031668663025,-0.6574597358703613,1.0448050498962402,-0.4322895109653473,-1.3822827339172363,-0.5439233779907227,-0.4606161117553711,1.5669769048690796,-1.0300623178482056,1.238134503364563,-0.1189692392945289,-0.1069236397743225,-0.3625871241092682,-0.2059426754713058,-0.9676315188407898,-0.0169761031866073,0.0998824685811996,-0.8472139835357666,-0.5495298504829407,-0.3317867517471313,0.4856826066970825,-0.0962174534797668,-1.113575458526611,-0.6440568566322327,-0.9038912653923036,-1.2432303428649902,0.1867403090000152,1.5585887432098389,-0.0857719928026199,-0.4515562355518341,0.8029418587684631,0.150097906589508,0.6251020431518555,1.2527611255645752,-1.5138908624649048,-0.4382274448871612,0.2099988758563995,-0.3928498029708862,-0.3788953125476837,0.4460860192775726,1.3592469692230225,-0.144610583782196,-0.5494781136512756,0.0204299669712781,0.1557709872722625,0.7332708239555359,-0.0272448509931564,-0.5070220232009888,-1.605032205581665,0.2003896236419677,0.3082523643970489,0.5938764214515686,1.478792428970337,-0.8921682834625244,-0.9250757694244384,-1.5053033828735352,0.0026237517595291,0.1446281820535659,0.6117421388626099,-0.9158969521522522,0.3842198252677917,0.8129209280014038,0.1141355335712432,-0.309502899646759,-0.0625574216246604,1.043176770210266,0.3864682912826538,-0.035624373704195,0.6592478156089783,-1.0562238693237305,0.6572108864784241,-1.4815521240234375,0.1527753174304962,0.6246575117111206
USER_7,-0.7061563730239868,-1.2976319789886477,0.4318064749240875,0.8019047975540161,2.1227800846099854,1.55926251411438,0.1986006051301956,1.0404915809631348,1.266829490661621,0.5832169055938721,-0.9055949449539183,-1.723920822143555,-1.2437385320663452,-0.3148031234741211,-1.6762386560440063,-1.4371905326843262,1.80647885799408,0.7250264286994934,-1.0898646116256714,1.3187286853790283,1.2184854745864868,0.739861786365509,0.68087238073349,0.7773421406745911,-1.073126196861267,-0.723467230796814,-0.5696735382080078,-1.1285628080368042,-0.2656117081642151,-0.7727296352386475,1.0982111692428589,-1.0615404844284058,-1.0468405485153198,-1.2834938764572144,0.3557187020778656,-0.561590313911438,0.5450231432914734,0.3226385712623596,0.5334595441818237,-0.0339989885687828,-1.6720987558364868,-0.8065264821052551,0.6412216424942017,0.1868010759353637,0.1409467607736587,-0.3820850849151611,0.4665890634059906,0.8594681024551392,-0.5502411127090454,0.8120555877685547,-2.0469582080841064,1.5398797988891602,-0.646022379398346,-0.0639300122857093,-0.989572048187256,0.7754135727882385,0.5277411341667175,-0.6244872808456421,-1.6119245290756226,0.3044558465480804,-0.6854100823402405,0.0187554657459259,0.6639173626899719,2.0759875774383545,-0.4922507107257843,2.4951295852661133,0.9209164977073668,2.6262013912200928,0.2676616311073303,0.4211722910404205,-0.6757105588912964,0.8525556325912476,0.1472878754138946,-0.8806852698326111,0.735521674156189,-0.1013421714305877,-0.9321882724761964,-1.9129558801651,-2.772451877593994,1.373180270195007,-1.9643439054489136,-0.4962727725505829,0.8107641339302063,1.281004786491394,0.1138516962528228,1.069410800933838,-0.2417849600315094,-1.8230050802230835,-0.347171813249588,-0.3928743600845337,0.8826533555984497,-0.5117297768592834,-1.391748070716858,0.4986584782600403,-0.1960847079753875,-0.3930786848068237,-1.042796611785889,-0.189256265759468,-0.4619356989860534,-0.556891143321991,0.8070748448371887,1.591030240058899,-0.6611124277114868,-0.1369060575962066,-0.4436834752559662,-0.7120177745819092,-0.9787551760673524,-2.797210931777954,1.1914277076721191,-0.9606770277023317,-0.2556305527687073,0.086822509765625,1.348655104637146,1.2947475910186768,-0.9645736813545228,-0.2672929763793945,-1.4374099969863892,0.9397155046463012,-1.1469416618347168,0.3946300745010376,0.0692020058631897,0.617739200592041,-0.0337679833173751,-1.4160089492797852,-1.8565099239349363,-1.187842845916748,1.3191131353378296,0.0996982604265213
USER_8,-0.6709394454956055,0.9415286779403688,-1.9590939283370967,1.5159428119659424,-0.861101508140564,-1.294036626815796,-1.220458984375,1.283874750137329,-0.8755273222923279,-1.2827370166778564,-0.1798177659511566,0.9433854222297668,0.2440648525953292,-0.1837055683135986,-1.1280457973480225,-0.2067062109708786,0.0564521439373493,-0.2046616375446319,-1.2035603523254397,2.0191314220428467,-1.4032032489776611,1.85663652420044,-0.2810102701187134,0.236301839351654,0.2372568547725677,-0.1862103641033172,-0.2005089521408081,0.7016921043395996,0.397174060344696,-0.9110981225967408,-1.5232445001602173,0.0103624276816844,0.3603299558162689,-0.1526210457086563,-0.1049043089151382,0.7941969037055969,1.1082953214645386,-1.797840237617493,-0.3229040801525116,-0.19330994784832,0.0579655095934867,1.4730441570281982,-1.7497988939285278,0.9482030868530272,0.8317033648490906,-2.0979223251342773,1.4899179935455322,1.1585158109664917,-0.9672913551330566,1.4393996000289917,-0.4687287211418152,0.6698938608169556,-0.1456103026866912,0.5790024399757385,-0.6085687875747681,1.0755940675735474,0.3686593472957611,0.3982325494289398,0.5080187320709229,0.8738464117050171,1.3779449462890625,-1.6880863904953003,0.010279543697834,-0.6162796020507812,0.9613157510757446,1.518638253211975,0.1353417038917541,1.5256397724151611,-1.5725395679473877,-0.8896321058273315,-0.8459354043006897,1.0713191032409668,-0.0678242892026901,1.208147406578064,1.0472731590270996,-1.226546049118042,1.417739748954773,1.1232670545578003,0.9310550093650818,-0.0560128130018711,-1.930002331733704,-0.402348905801773,-0.6301590800285339,1.627835035324097,0.6257770657539368,0.3322773575782776,0.3425299227237701,-2.024949789047241,0.6159343719482422,-0.6218153834342957,-0.316624641418457,0.132913738489151,-0.9969056844711304,-1.564037799835205,-0.6611698865890503,-0.7491323351860046,0.4515992701053619,-1.6112701892852783,-1.436798334121704,-0.8312354683876038,-0.0873635858297348,1.305278778076172,-0.6725399494171143,0.1811153292655944,0.4210367202758789,-0.439720869064331,0.2911660671234131,-1.5086984634399414,0.3211192786693573,1.1178728342056274,0.7022044062614441,0.4584121108055115,2.3460352420806885,1.2873413562774658,-0.1962553113698959,0.3187298476696014,-1.3007466793060305,-0.5120871663093567,0.5283315777778625,1.218803882598877,-0.4432498812675476,-0.1375660747289657,-0.7427576780319214,-0.3366908431053161,0.2435901015996933,0.1135264560580253,0.8545640110969543,0.1969657242298126
USER_9,1.3420933485031128,-0.0540321245789527,-0.8133164644241333,0.5162136554718018,0.2664704918861389,0.1995611935853958,0.8133874535560608,0.3715262711048126,0.6737474799156189,-0.3848465979099273,-0.0701039582490921,-0.5642362236976624,0.8341710567474365,-1.1171557903289795,-1.7427761554718018,-1.193810224533081,-0.0852463692426681,-0.4674449563026428,-0.7013409733772278,2.367025852203369,1.660228967666626,0.9238232970237732,-0.4131051301956177,-0.5655109286308289,1.3060160875320437,0.1386704593896865,-0.8957908153533936,-0.6727708578109741,0.3018485307693481,-0.2914426028728485,0.0371826067566871,-0.026506807655096,-1.2370585203170776,0.0238639414310455,0.0235191602259874,0.4671032428741455,0.1339582204818725,-0.4847255945205688,-1.0400314331054688,-0.1645477712154388,-0.435741126537323,2.6523914337158203,-0.9085018634796144,0.8848013281822205,-0.1547770500183105,-0.9550955891609192,0.328896701335907,2.1342077255249023,-0.7516250610351562,-0.0545077547430992,-1.638921141624451,0.1084474027156829,-1.4842767715454102,0.2838653922080993,-0.6125582456588745,-0.7792416214942932,1.4324657917022705,0.5751748085021973,-0.3562022447586059,-0.3691989779472351,0.1005278006196022,0.4152143597602844,-0.6463184952735901,0.1294489800930023,-0.2198417782783508,2.0736916065216064,-0.2542175948619842,1.3415210247039795,-0.1354430615901947,-0.06897933781147,0.5630858540534973,0.4705316126346588,-1.5734912157058716,0.1155411899089813,0.229357436299324,-0.259730726480484,0.1134668737649917,0.5541685819625854,-0.6239036917686462,1.0834444761276243,-1.003222107887268,-1.4370245933532717,0.2845200598239898,-0.0742983594536781,1.268970966339111,0.4426470696926117,-0.0005464069545269,-1.5850975513458252,0.547285795211792,-0.5675765872001648,0.8621621131896973,-0.2118350267410278,-0.8341387510299683,0.0406068712472915,-0.4884035587310791,1.279240608215332,-0.1456901729106903,-1.4304827451705933,-0.4506821036338806,-0.7854777574539185,0.5722007155418396,1.0107942819595337,-0.7534154057502747,-1.6471201181411743,-1.200945496559143,0.4888875484466553,0.5653060078620911,-1.814137578010559,1.1969547271728516,0.3620955049991607,-0.2199110835790634,-0.9185546040534972,1.0645291805267334,-0.0363880097866058,0.1878682971000671,1.8218836784362795,-1.9723341464996336,-0.6694399118423462,0.0840354114770889,0.3231492042541504,1.2339138984680176,1.2694895267486572,-0.9103918671607972,-1.6826117038726809,0.6125732064247131,-1.3610458374023438,0.1964267939329147,-0.8996021747589111
USER_10,-0.8080521821975708,-0.7102587223052979,-2.8573644161224365,1.4774601459503174,0.8552019596099854,0.4178788363933563,-0.1040943562984466,-0.6942656636238098,-1.1197079420089722,0.1143907755613327,1.1251341104507446,-1.6247000694274902,-1.0198023319244385,-0.3573411703109741,0.9830501079559326,-1.357226848602295,-0.7252036333084106,-0.8003401160240173,-2.541601657867432,1.1276061534881592,0.5861696004867554,0.3760360181331634,0.6331457495689392,-0.994120478630066,0.7592615485191345,0.329231709241867,0.3889018893241882,-0.9149107933044434,1.1659517288208008,-0.1116846352815628,1.9477330446243288,0.0550100468099117,1.0046476125717163,-0.3837625682353973,0.246390014886856,1.5642973184585571,-1.8769923448562624,0.6087578535079956,-1.025775671005249,-0.9082058668136596,-0.4868837594985962,0.7299948930740356,-1.9239972829818728,-1.180283546447754,1.3908056020736694,-2.333130359649658,0.8485884070396423,1.7265357971191406,1.434428095817566,-0.0908869802951812,-1.1588001251220703,-0.7051160931587219,0.0217479243874549,-0.1531805992126464,-0.0542007572948932,0.0253434441983699,-0.3516330420970917,1.4361332654953003,0.7303284406661987,-1.2651591300964355,-1.056294560432434,-0.7992197275161743,-0.2153043150901794,-0.1379626244306564,-0.5329623222351074,-0.2753869891166687,-0.8702574968338013,1.3602689504623413,0.4939156770706177,0.1733401268720626,-0.7466087341308594,-1.4840736389160156,-1.7647192478179932,-0.481019914150238,-0.8319250345230103,-0.8383316397666931,0.4857896268367767,-0.0331724621355533,-1.3913099765777588,1.272028565406799,-0.8680254220962524,-0.9124387502670288,-0.1116825193166732,1.4571387767791748,0.8357917666435242,2.268095731735229,-0.2599388062953949,0.6278455257415771,0.2915050387382507,-2.221120357513428,1.728975534439087,0.0971702560782432,0.4205464720726013,0.5353984832763672,-0.4563413262367248,0.6129757165908813,-1.3430510759353638,-1.1079304218292236,0.6169913411140442,0.4370805323123932,-2.199134826660156,0.5524057149887085,0.4522449970245361,0.2544487416744232,0.9647637009620668,-0.9143997430801392,2.0776405334472656,-0.2091515958309173,1.3038997650146484,0.4650823771953583,-1.0879453420639038,-0.8171064853668213,-1.1707184314727783,1.2828258275985718,0.4283331036567688,0.920421838760376,-0.4322820007801056,-0.5316749215126038,-0.4378761947154999,0.998647928237915,0.7694305181503296,1.5575954914093018,-0.2846879363059997,-1.097403049468994,-0.2145959883928299,-0.5518248081207275,-0.1037402525544166,1.0494756698608398
USER_11,0.0988835021853447,-0.1104795783758163,0.3623813092708587,-2.703287363052368,-0.8056007027626038,-0.6099428534507751,0.9355084896087646,1.3611732721328735,-0.5066924691200256,1.2853257656097412,0.3706837892532348,1.11514413356781,0.2679906487464905,1.1327818632125854,0.1404601484537124,1.3667539358139038,0.6487243175506592,-2.149418354034424,-0.3620313704013824,-1.0511828660964966,-0.9023716449737548,-0.5080053210258484,-1.0293142795562744,0.8467248678207397,-0.5811136364936829,-0.6829983592033386,1.4246199131011963,0.3248569369316101,0.0076451450586318,0.1055787727236747,0.3660486340522766,0.6943800449371338,0.9676759839057922,0.6133915781974792,-1.5577009916305542,-0.7991882562637329,-0.409912496805191,-0.5658462047576904,-0.3984535932540893,-1.3666499853134155,-1.315746545791626,-0.2042114585638046,0.1411130875349044,1.356525421142578,-0.3250738680362701,-1.546343445777893,-0.6758115887641907,-0.3901615738868713,-0.5664101243019104,0.5727574825286865,0.601906955242157,-0.0092446915805339,-0.7454936504364014,0.0312952995300293,0.1791663318872451,-0.943136751651764,-1.0855478048324585,0.2364141345024109,-0.9405784606933594,-0.1262371242046356,-1.8384878635406487,1.1237196922302246,-0.1618173718452453,0.5753728151321411,0.8644230365753174,-0.6034016609191895,-2.026571273803711,-0.1130097582936286,-0.631138265132904,-0.0319388881325721,-0.4561406373977661,0.9052709341049194,0.7010312080383301,-0.595163881778717,0.1223793774843216,0.0856175944209098,-1.2212133407592771,-1.6410760879516602,1.843318223953247,-0.7495318055152893,-0.6464118361473083,1.615528225898743,-0.675146758556366,-1.4981495141983032,-0.1741951704025268,-0.3869197070598602,-0.5339017510414124,-0.2089947015047073,1.0095754861831665,0.2661619484424591,-0.7262090444564819,0.1527329832315445,-0.0545965880155563,0.2032792568206787,2.433488607406616,0.6415355801582336,-0.7108004689216614,0.7358168363571167,0.3441055119037628,-0.3306530117988586,1.9050962924957275,-0.1006127595901489,-0.7167962193489075,-0.0633071213960647,-0.9042696952819824,0.1689347773790359,-0.4047083556652069,-0.1127111762762069,-0.4593088328838348,-0.3857999145984649,-0.0476968511939048,-0.0532416552305221,0.8145022392272949,-0.3298982679843902,-0.4789571762084961,0.2638261020183563,1.247085452079773,-0.4572237730026245,-0.711104691028595,-0.2587894797325134,0.3813214302062988,0.7347869873046875,0.2920853197574615,0.3239090144634247,-0.3576529026031494,0.4031228721141815,0.4213529527187347,-1.080274224281311
USER_12,0.0547553673386573,-0.0582872219383716,-0.5198414325714111,-0.8842512965202332,-0.929107904434204,-0.5379202961921692,0.7383307814598083,0.692122220993042,-0.4973258674144745,0.4998283684253692,0.1694161891937255,0.1193593740463256,0.8197049498558044,0.7360128164291382,0.2311455756425857,0.616544783115387,0.0394584983587265,-2.102123975753784,-0.1306653022766113,-0.043652705848217,-1.4171440601348877,0.5250329375267029,-0.3475102484226227,0.9473528861999512,-0.3168837428092956,0.6282769441604614,2.2251052856445312,-0.3252749741077423,-0.1373787224292755,-0.4731549024581909,-0.0319498851895332,0.0623805820941925,0.7278890609741211,1.1249209642410278,-0.135833278298378,0.5166056156158447,0.4292652308940887,-1.215024471282959,0.6442666053771973,-0.5268762111663818,-0.5935671329498291,0.8504214882850647,-0.419007807970047,0.8384584784507751,0.1358489096164703,-1.153027057647705,0.0335377566516399,-0.4237400889396667,-0.2867434322834015,-0.1804924011230468,-0.565827488899231,0.2105501443147659,-1.189748764038086,0.7565361857414246,-0.6179285049438477,0.5634996891021729,0.8623524904251099,0.6132229566574097,-1.0830302238464355,-0.6539859175682068,-0.9042006134986876,0.8861470222473145,-0.0310895163565874,0.3377802968025207,0.5153305530548096,0.7714319825172424,-0.6819620728492737,0.4558691084384918,-0.8655271530151367,0.4493385553359985,0.0598304979503154,1.336755871772766,0.4877053499221802,-0.4346016645431518,-0.0771687924861908,-0.3720768988132477,-1.1864006519317627,-1.1600635051727295,0.856495201587677,-0.593954861164093,-0.6491952538490295,0.6123579740524292,0.6223442554473877,0.271758884191513,0.7089939117431641,-0.8234308958053589,0.3625630438327789,0.4788329601287842,0.5934522151947021,-0.2734608650207519,-0.7304688692092896,-0.2431214302778244,-0.1267952620983123,-0.223091721534729,0.8985399603843689,0.7485000491142273,-0.2177402675151825,0.1096742153167724,0.1035804450511932,-0.0665566176176071,0.6848121285438538,-0.0051035769283771,-0.9021023511886596,0.6751797199249268,0.7818588018417358,0.5355773568153381,-0.1892131716012954,0.1249261945486068,-0.0782931372523307,-0.5939764976501465,0.7786750793457031,-0.7291789650917053,1.2693946361541748,0.3292286396026611,-0.2729130983352661,0.8486291170120239,-0.0562455393373966,0.1823650002479553,1.4489201307296753,-0.4510887265205383,0.870635986328125,0.4566612541675567,-0.0666684955358505,0.0749385878443718,0.6874492764472961,-0.6891082525253296,0.6463654041290283,-0.5973243713378906
USER_13,-0.52044677734375,-0.5181944370269775,-0.7014045119285583,0.0672206655144691,0.8569071888923645,0.6129546761512756,-0.1335452198982238,-0.058407012373209,0.36459481716156,0.1876766979694366,0.1668196320533752,-0.7513453960418701,0.1756878048181533,-0.5001041889190674,-0.1073445230722427,0.1358130872249603,0.1329858750104904,-0.4347209334373474,-0.5696129202842712,0.1931978911161422,0.8634788990020752,0.2462262362241745,-0.141516774892807,0.1507015377283096,0.4813937544822693,-0.319268524646759,0.1902293413877487,-0.3031293153762817,-0.1978214532136917,0.1944062709808349,0.4525104761123657,0.0140065178275108,0.2875349223613739,0.2417755424976349,0.524467945098877,-0.490226149559021,0.5967007875442505,-0.6691322922706604,0.1382219940423965,-0.1847892701625824,0.3481627106666565,0.4842813611030578,-0.020279049873352,-0.0243658125400543,-0.0855214074254036,-0.7876660227775574,0.5003231763839722,0.4515631794929504,0.432708203792572,0.1286475360393524,-0.9071635603904724,0.3074067234992981,-0.2465942800045013,-0.3538009822368622,-0.4211143851280212,-0.0905601605772972,1.2779207229614258,-0.3223776817321777,-0.3188835382461548,-0.4100843369960785,0.1348652243614196,0.2152958363294601,-0.2737581729888916,1.183174729347229,-0.06534194201231,0.4491801261901855,0.312274158000946,0.6633688807487488,0.1618089079856872,-0.7703957557678223,0.1043530255556106,-0.4909750819206238,-0.5628190040588379,-0.5699380040168762,0.6169756054878235,-0.3345561027526855,0.6297996044158936,0.2834470272064209,-0.5599055886268616,0.1107445955276489,-1.1410579681396484,-0.3346907496452331,0.2945916354656219,0.3452617228031158,0.5740700364112854,0.6260677576065063,0.2775037288665771,-0.1747611761093139,-0.6943068504333496,0.1607176810503006,0.2351439893245697,0.1517057567834854,-0.1283347606658935,0.201622873544693,0.8203550577163696,0.4550831913948059,-0.232026606798172,-0.4889801740646362,-1.303621530532837,0.1538417786359787,0.1400342881679535,0.3384714126586914,-0.5400300621986389,-0.3899733126163482,-0.2060990333557129,-0.0741315931081771,-0.3689863681793213,-0.9634442329406738,0.0289918631315231,-0.0464439988136291,-0.5331774353981018,-0.1706919074058532,0.6225943565368652,0.1777409315109253,-0.3786433935165405,0.0326944515109062,-0.4708846807479858,0.170067548751831,0.0243313014507293,0.4755173921585083,0.2562187612056732,-0.054581232368946,0.5175550580024719,-0.2220946550369262,0.5212373733520508,-1.1974642276763916,0.5849872827529907,0.7200224995613098
USER_14,-0.6857427358627319,-0.3987414836883545,-0.4285061359405517,1.396384835243225,1.2961370944976809,0.4714013636112213,0.9056644439697266,1.2507392168045044,-0.0724157243967056,-1.4104151725769043,0.1896916031837463,-1.804936528205872,0.4201002120971679,-1.6653680801391602,-2.391199827194214,-0.0636139512062072,1.348117470741272,-0.0112407989799976,-2.358439683914185,1.6211479902267456,-0.388267457485199,2.589982271194458,-1.4654710292816162,-1.408991813659668,-1.0471453666687012,0.6405393481254578,-1.2697855234146118,1.1864001750946045,2.089838981628418,0.8128004670143127,1.0964425802230835,-0.6762934327125549,-0.3707032799720764,-1.1523562669754028,0.2215838581323623,0.1691420078277588,-0.1169645488262176,-0.9962512850761414,-1.2610278129577637,0.0842440426349639,-0.8238339424133301,0.7069077491760254,0.1626594066619873,1.170156717300415,2.154146671295166,-1.9249956607818604,1.130419373512268,1.578513741493225,-0.0016265511512756,-0.0714349448680877,-1.3331905603408811,1.3190207481384275,-2.08248233795166,1.8880302906036377,-2.911318778991699,1.079478740692139,0.2013352364301681,-1.478981375694275,-1.03677499294281,1.5198200941085815,-1.2367807626724243,0.1915272921323776,1.2416818141937256,2.0421743392944336,-0.1317574679851532,3.1748080253601074,0.5519943833351135,3.0236291885375977,1.149548053741455,-0.9305652379989624,-1.0478471517562866,0.917271614074707,-0.8225260972976685,-0.3975622653961181,1.2261663675308228,1.0422426462173462,-0.8581998348236084,-0.9125466346740724,-0.026800338178873,1.5507804155349731,-0.8592759966850281,0.6103023290634155,-0.5910987854003906,0.0311232972890138,1.048980712890625,-1.2548670768737793,-0.8596879839897156,-1.0103816986083984,-0.0834875702857971,0.7778553366661072,0.3918359577655792,0.6564325094223022,-0.3157194256782532,-0.7842261791229248,-2.001781463623047,0.7550384998321533,-1.2510071992874146,-0.9350829720497132,0.1960804462432861,-0.463323175907135,1.3860163688659668,0.5262700319290161,-0.6715218424797058,0.8258876204490662,-0.3862224519252777,1.921538472175598,-1.0703341960906982,-2.525121688842773,-0.0859807878732681,-0.389180064201355,0.5830114483833313,0.3850358724594116,0.6877957582473755,0.8382532596588135,1.1172361373901367,0.1989558935165405,-1.595507264137268,-0.7063047885894775,-0.2508110404014587,-0.067769631743431,2.305786609649658,1.0480724573135376,0.0069281496107578,-0.1675148010253906,-0.7018107175827026,-1.227298617362976,0.4460899233818054,-0.1995976120233535
USER_15,0.33022788166999817,0.7494398355484009,-0.2728804647922516,1.9998786449432373,0.007999383844435215,-0.31852099299430847,1.733843207359314,-1.542868733406067,-2.048710584640503,0.39130380749702454,1.595240592956543,-1.4366352558135986,0.5544914603233337,-1.0048707723617554,-0.24920737743377686,-0.9138641357421875,-1.4149055480957031,-1.8707860708236694,-1.808136224746704,-0.3883384168148041,-1.5166953802108765,0.9042903184890747,-0.47201547026634216,-1.0550733804702759,-0.5819820165634155,-0.7540451288223267,0.19981126487255096,0.6792308688163757,-0.48581767082214355,-0.5064672827720642,0.269253134727478,-0.4203772246837616,0.19823715090751648,-0.06200874596834183,0.3983213007450104,1.598929524421692,-0.7718743681907654,-0.11543317884206772,-0.4537677764892578,-0.6340459585189819,0.9460426568984985,2.3198049068450928,-0.8798686265945435,-0.6172248721122742,0.03779624402523041,-1.5612750053405762,1.1160368919372559,1.2999275922775269,0.2752463221549988,0.3491614758968353,-1.2328003644943237,-0.6257922649383545,0.7262539863586426,0.6194174885749817,-0.6985531449317932,0.5402896404266357,-0.03919440135359764,0.6344587802886963,-1.1379536390304565,-1.0266064405441284,-0.8213520050048828,-1.100441336631775,0.1302565485239029,-0.030142147094011307,-0.717709481716156,1.0051829814910889,-0.6468672156333923,1.4157848358154297,1.0054666996002197,1.2834802865982056,-0.007229655981063843,-0.19916756451129913,-1.4627397060394287,-0.49045926332473755,-0.7309873700141907,1.0964128971099854,-0.41686198115348816,1.6108063459396362,0.5751136541366577,1.420210599899292,1.181933045387268,-0.9089573621749878,-0.1088363379240036,0.2000848948955536,1.709519624710083,0.48230740427970886,0.8974327445030212,0.8452165722846985,0.4546119272708893,-0.5072808265686035,0.5921897888183594,0.6436999440193176,1.8953298330307007,1.7984647750854492,0.4107325077056885,0.8635502457618713,-1.8182529211044312,-0.4783756136894226,0.10586151480674744,0.24174217879772186,-0.9944585561752319,0.5723308324813843,-0.31530407071113586,-0.8473440408706665,1.162436842918396,0.19244298338890076,0.6118699312210083,0.049026668071746826,-1.1775269508361816,-0.11012338101863861,0.10093937069177628,0.9543402791023254,-1.4359848499298096,1.8421802520751953,-1.4160932302474976,2.1686015129089355,-1.6693823337554932,-1.7236926555633545,-0.5373546481132507,1.6959872245788574,-0.5218676328659058,-0.5484941005706787,-0.10590137541294098,-0.5654393434524536,1.2704800367355347,0.028991036117076874,0.45587974786758423,0.9063286781311035
